{
  "net.0.weight": [
    [
      -0.4689072072505951,
      0.6796984672546387,
      1.3406208753585815,
      1.03093421459198,
      0.3993254601955414,
      0.22561095654964447,
      -0.26738062500953674,
      0.4773402512073517,
      -0.16659581661224365,
      -0.42763784527778625,
      -1.199095606803894,
      -0.5280453562736511,
      0.8062310814857483,
      -0.5670498013496399,
      -1.7566016912460327,
      -0.2498721033334732,
      1.1246179342269897,
      0.5944207906723022,
      1.210682988166809,
      0.8972493410110474,
      -0.30966073274612427,
      -0.16690771281719208,
      -0.41744643449783325,
      -0.8756989240646362,
      1.2730909585952759,
      0.0009011999936774373,
      1.200714111328125,
      -0.6662225723266602,
      -1.4275977611541748,
      -0.5445568561553955,
      1.2453317642211914,
      -1.1686058044433594
    ],
    [
      0.44348013401031494,
      0.17344820499420166,
      1.2806893587112427,
      -0.777564525604248,
      1.1168266534805298,
      -0.46117234230041504,
      1.357780933380127,
      1.4362975358963013,
      0.8645772933959961,
      -0.3431892693042755,
      0.9968596696853638,
      -1.595115303993225,
      -0.11694404482841492,
      0.944448709487915,
      -0.4848315715789795,
      -1.3646916151046753,
      -0.7261580228805542,
      -0.35856908559799194,
      -0.7421124577522278,
      -0.05282095819711685,
      1.2642730474472046,
      1.1436948776245117,
      -0.5136926174163818,
      1.759393572807312,
      -0.05729052051901817,
      0.6139942407608032,
      0.8113845586776733,
      1.4740959405899048,
      0.9560786485671997,
      1.251207709312439,
      -0.8916178941726685,
      1.421433448791504
    ],
    [
      -0.05628179386258125,
      0.020650602877140045,
      -0.44602692127227783,
      0.6545574069023132,
      0.00597355468198657,
      1.508056402206421,
      -1.3654992580413818,
      1.2782049179077148,
      -0.28809577226638794,
      -1.7614107131958008,
      0.6977519989013672,
      -0.22285184264183044,
      -2.2788403034210205,
      0.4364442527294159,
      0.008197158575057983,
      0.6785843372344971,
      0.1366027593612671,
      1.869978427886963,
      -0.0698193684220314,
      -1.3247358798980713,
      1.6985981464385986,
      -1.4630719423294067,
      1.728399395942688,
      0.0888177752494812,
      1.291231632232666,
      0.8701242804527283,
      -0.23935259878635406,
      -1.4203976392745972,
      0.9018979072570801,
      -0.1154848262667656,
      0.9992848634719849,
      1.3874799013137817
    ],
    [
      -0.4466715455055237,
      1.207371711730957,
      1.2002812623977661,
      0.6262625455856323,
      -1.166060209274292,
      1.2980290651321411,
      -0.005617927294224501,
      -0.29232633113861084,
      2.0133068561553955,
      0.8154776692390442,
      0.8251982927322388,
      -0.9546929001808167,
      -0.20675374567508698,
      1.5963319540023804,
      0.10708166658878326,
      -0.5547397136688232,
      -0.4408213198184967,
      -0.5289891362190247,
      -1.3968002796173096,
      -3.8810105323791504,
      -0.41423895955085754,
      -0.08672942966222763,
      -1.5615239143371582,
      0.5933972001075745,
      0.5171813368797302,
      -10.975912094116211,
      -2.8741226196289062,
      -2.290008544921875,
      -1.4456127882003784,
      1.666034460067749,
      0.9391406178474426,
      -3.946851968765259
    ],
    [
      1.8376919031143188,
      -1.4710848331451416,
      -1.6133967638015747,
      -1.0885980129241943,
      0.9200443029403687,
      -0.7668433785438538,
      1.3811054229736328,
      1.1826180219650269,
      0.851280152797699,
      -0.4890192747116089,
      0.6503602862358093,
      -1.583441972732544,
      -0.4341072142124176,
      -0.6343390345573425,
      -0.3837830424308777,
      1.1009057760238647,
      1.8223189115524292,
      -0.8168061375617981,
      -2.409404993057251,
      0.03981221839785576,
      -2.121267080307007,
      -3.561842441558838,
      -0.4297597408294678,
      -1.7122031450271606,
      -2.9084670543670654,
      0.6870385408401489,
      2.383091926574707,
      0.775059163570404,
      -0.3536039888858795,
      -3.460965633392334,
      -1.1639947891235352,
      0.8219372630119324
    ],
    [
      0.7071453928947449,
      1.249659776687622,
      -3.5699634552001953,
      -3.2069802284240723,
      -8.827679634094238,
      -1.685267686843872,
      1.2946819067001343,
      -1.0534534454345703,
      -2.856923818588257,
      -3.6213886737823486,
      -0.7777647972106934,
      -1.7748662233352661,
      -2.9754509925842285,
      0.34031805396080017,
      0.5695861577987671,
      -0.4710877239704132,
      0.5876777172088623,
      -2.601689577102661,
      2.312926769256592,
      1.5789752006530762,
      -0.7221639156341553,
      1.7691562175750732,
      -3.1572062969207764,
      0.7805277109146118,
      -1.670426845550537,
      0.010927237570285797,
      -1.9163583517074585,
      0.5896322131156921,
      2.1096560955047607,
      1.9885541200637817,
      -2.5335464477539062,
      -1.2490606307983398
    ]
  ],
  "net.1.weight": [
    [
      0.16113640367984772,
      0.515952467918396,
      -1.0486304759979248
    ],
    [
      0.056634481996297836,
      -0.20665578544139862,
      1.1673221588134766
    ],
    [
      -1.3840183019638062,
      -1.349016785621643,
      -1.8712835311889648
    ],
    [
      -0.27003049850463867,
      -0.7446646690368652,
      1.2453309297561646
    ],
    [
      -1.8224424123764038,
      -1.7955405712127686,
      -2.308976411819458
    ],
    [
      -0.20685210824012756,
      -0.2499876618385315,
      -0.8491272926330566
    ],
    [
      -0.6954894661903381,
      -0.7626127004623413,
      -0.42836111783981323
    ],
    [
      -0.6758309602737427,
      -0.7764872312545776,
      -0.5308983325958252
    ],
    [
      1.0720442533493042,
      0.9967103004455566,
      1.32368803024292
    ],
    [
      -0.4414653182029724,
      -0.44723451137542725,
      -0.6158800721168518
    ],
    [
      -0.5715420246124268,
      -0.7677437663078308,
      -0.020896917209029198
    ],
    [
      -0.0701187252998352,
      0.0011731941485777497,
      -0.6889438629150391
    ],
    [
      -0.4384869337081909,
      -0.4197314381599426,
      -0.3542095422744751
    ],
    [
      -0.2916530966758728,
      -0.12352245301008224,
      -0.9444177150726318
    ],
    [
      -0.5900014638900757,
      -0.5802252888679504,
      -0.33853432536125183
    ],
    [
      -0.601656436920166,
      -0.7684083580970764,
      0.009693491272628307
    ],
    [
      -0.6924529075622559,
      -0.6226603984832764,
      -0.7879436612129211
    ],
    [
      -0.915330708026886,
      -1.1337426900863647,
      -0.7202567458152771
    ],
    [
      -0.3928548991680145,
      -0.27499353885650635,
      -1.2799317836761475
    ],
    [
      -0.9916560053825378,
      -1.0585966110229492,
      -1.417290210723877
    ],
    [
      0.7108321189880371,
      0.7682645916938782,
      1.3418079614639282
    ],
    [
      1.1604838371276855,
      1.1043442487716675,
      1.3216326236724854
    ],
    [
      0.9137317538261414,
      1.0897136926651,
      0.8926516175270081
    ],
    [
      0.7244788408279419,
      0.6999766826629639,
      0.8183643221855164
    ],
    [
      0.9878056645393372,
      0.9868419170379639,
      0.9681981205940247
    ],
    [
      2.1870815753936768,
      2.0014803409576416,
      2.4211175441741943
    ],
    [
      1.9233322143554688,
      1.9292558431625366,
      2.691605567932129
    ],
    [
      -1.0850764513015747,
      -0.9886358380317688,
      -0.9215896129608154
    ],
    [
      0.7292819619178772,
      0.5838575959205627,
      1.2220838069915771
    ],
    [
      -0.9530841112136841,
      -0.8589493632316589,
      -1.6746938228607178
    ],
    [
      0.6303749084472656,
      1.143065094947815,
      0.128592848777771
    ],
    [
      -1.3224385976791382,
      -1.1405760049819946,
      -2.1096184253692627
    ]
  ],
  "bound": 1.0,
  "cascade": 1
}